{"W1": [[0.0008685333635656728, -0.030575580452124853, 0.006178117593319416, -0.009497426972182234, -0.017307949358652264, 0.013632503015894979, -0.004794610669833707, 0.0006674163850743066, -0.005544395540196784, 0.0013528057716355466, -0.021212798642180713, -0.005785572959549666, -0.0032260799593707484, 0.009004004948315183, -0.0019968997617268803, 0.008479775224406823, -0.002005596733254697, 0.009708915284237275, -0.0020396170347201843, -0.01442881332472602, -0.007641582832245535, 0.007287712376893955, 0.0033961432937897698, -0.004366912541152991, -0.009581746738674301, -0.005043065102774263, 0.007303292629140328, -0.00587414598375845, 0.0017363302858933432, -0.0034799591404126775, 0.0014824671560874835, 0.0025436403665779453], [-0.007681600918575389, -0.008728206572024652, 0.0006244111646414269, -0.028542142980950553, -0.009367833678162137, 0.016592068448395607, -0.003238308575633495, 0.011374765618576414, 0.0021929056207688237, 0.026195635832018244, 0.004140274184482899, 0.006193059278197454, 0.0033469482244520036, 0.014162010517333774, -0.011571585727074288, -0.008508166432675459, -0.011200734329030952, -0.01861393920233654, -0.0067008884899565765, 0.00023059047972974933, 0.0033560961014790698, -0.007177986557485047, -0.007109423695864541, -0.007601847322424909, 0.007960410285374595, 0.005347585699716909, -0.001360600088301019, -0.0024338373948937686, 0.00355007319343499, -0.015150487458156002, -0.010799849697106893, 0.01174647489210024], [0.014032503069859025, 0.015831264548683405, 0.01801326544380822, -0.0018381970404244025, 0.000286975034636646, -0.006296089377210452, 0.010918966078862257, 0.006766205941455793, 0.004776782911840399, 0.020145804855073092, 0.005467007617873758, -0.01272205130531631, -0.014745073439301202, 0.011694135895433494, 0.022190514481309927, 0.003970213246858241, -0.00027112652065529314, 0.0028496978565934164, 0.0015263996766601562, -0.010869122159795415, -0.007567001961817007, -0.006817673275902887, 0.019251627588646004, -0.006814870256228928, -0.008837460322923806, -0.028454666156461975, 0.0024762080837717666, 0.0014810879307920791, 0.013078596539653294, -0.000952180083105985, 0.018217269666816787, -0.008547642238108805], [-0.00559588445086837, 0.011645678279034866, -0.012774780490183033, 0.005735890282045167, -0.032566381551194276, -0.0017196058454386107, 0.02026933399604835, -0.0024285723623697197, 0.014488327279462027, 0.011727194801732108, -0.011398838705789626, 0.01174160838328581, 0.008349578652190387, -0.0023992638252316313, 0.006918908236676258, -0.0026258206793233455, -0.0013729554741804693, -0.018644335783995863, -0.01616117578480991, -0.00543375063873951, 0.0007774036742331339, 0.007235638229102014, -0.008370585834216428, -0.013163926045648996, -0.005022425599201393, -0.0019429255143643851, -0.0066431796638612385, -0.011032013656575522, 0.002921430322094604, 0.013423840799490303, 0.016245870530892992, -0.0031948329860935158], [0.0007037430321567364, 0.02173958888830821, 0.010969320356478674, -0.001016604256601562, 0.007429818505775357, 0.00612776744386828, -0.009714914686512218, 0.00270319845786095, 0.013938590676153991, 0.002367315272774058, -0.018006334805773513, -0.006199398362036092, 0.02611520836081362, 0.0008591056129341356, 0.010166937614221295, -0.012004238076781021, 0.008708147444496836, 0.015114303104207225, -0.010553792424000766, -0.009793326220148014, -0.0014982700293448292, -0.010219502879628214, 0.01563226331990863, 0.0023850202289223904, 0.004081727330199593, 0.004596145530582243, -0.0010010674366222538, -0.000649538052532766, 0.008610558427694934, -0.000671814544769463, 0.01751989797994926, -0.009590865078618283], [0.006224274176797186, -0.0005897588942265927, -0.0004557480920085871, -0.015332121468951984, 0.006241147269029383, -0.012084230596799833, 0.0011360419918635299, 0.009131164717249672, -0.0030330392537236176, 0.003386906867846409, -0.012557080154493317, -0.006106760161516712, -0.009948663787157424, 0.010141477324249281, -0.015599221059589623, -0.00848728798629867, 0.02242032193005889, -0.024318470045249795, -0.0012660863015183732, -0.0070595495386113665, 0.001969215825633749, -0.01550386065732911, 0.006847893910316264, -0.013855817303209767, -0.01590839038667398, -0.0029600271646987937, 0.01162332921306012, 0.0054001532844045125, -0.0024134990948302126, 0.012885648546283428, 0.004935004065098405, -0.008568027053521193], [-0.006195785733620816, -0.007126906021290146, 0.020952479642933706, 0.011863825648742065, 0.00397788315730936, 0.008832819600070494, -0.008728251577493566, -0.0026007911708071296, -0.0030363736615126717, -0.004968015214679697, -0.004653121674734573, -0.004646647352836298, 0.01886254693058139, 0.007318473414720165, -0.004037092093865665, 0.012305924974372131, 0.013590869557952277, -0.009108686904766055, 0.010581815902094676, -0.002254478491384547, 0.010927434167654012, 0.008062078912808678, 0.0011251450525664615, -0.003222492128124189, -0.015809310784765294, -0.008315729634043492, -0.0025313084981028276, 0.0020695469613781045, -0.005794735783296064, -0.005937710237660442, 0.00879803506237015, 0.018465252904051335], [-0.010162800849298879, 0.0072303186237219486, 0.010307376806043211, -0.013984636727387761, 0.019727329060752603, -0.003171049028661732, 0.0061787575034791455, -0.029286372014762328, 0.010400565039953359, -0.004898160071031989, -0.024918141598526945, -0.002308580004142307, -0.012164896293022772, -0.012688006744649177, -0.00767174368735767, -0.019751094254232503, 0.0124297569089742, -0.011952415519751859, 0.0027043643056882945, 0.014431513096087598, 0.0021575977523201925, 0.007274192100069226, -0.009817637236079216, 0.0008586112190560237, -0.01577837807459998, -0.007313118123578813, -0.011123951381050021, 0.005900631744022737, 0.002602754925619247, 0.004671241743695356, 0.005750942306700678, 0.015594549427957056], [-0.005251454800810091, -0.010645576951496993, 0.004252416487488336, 0.004416860440698462, 0.00046724433999181504, -0.008113265927071697, 0.007599893677992133, 0.004016654701999992, 0.029473265397156265, 0.013994128678864631, -0.004323542797078807, 0.0015010166492630584, 0.011096841408765013, -0.011060601062621552, 0.01563446648957682, 0.006572557540837704, -0.01228564528336658, 0.008141155433223182, 0.005382092007880492, 0.018903288354630874, -0.0008792925901745733, -0.00754200892505088, 0.0032747532676528747, -0.007664532482899171, -0.014288790418085786, 0.013127199077075368, -0.006526787429354677, 0.005819266966880997, 0.005714761920477255, -0.0065821268541350585, 0.029989605719533016, -0.0012517127736044575], [-0.010211852807879064, 0.007610228856479528, -0.00568418691585614, 0.006149085230908007, -0.0023475820549084146, 0.0024080534088148802, -0.0012366141760337518, 5.917512838915594e-06, -0.015259915465788925, -0.013340549586884397, 0.008460605421904388, 0.0062739827942778145, -0.0005776450622064917, -0.003940578700111612, 0.009718934820608942, 0.011027113526254505, -0.010414406778405478, 0.00482724924111181, -0.00030301770939580565, 0.005999487553204283, -0.009200212955723638, -0.0035410728606160478, 0.020734949300219824, 0.021344317392094997, 0.0008115209733764105, 0.005715652311510889, 0.009290830077789592, -0.01132850139278904, 0.0007130679603229779, 0.006024696673461633, 0.0065009054848480085, 0.008976337953433517]], "b1": [[-2.1716208539156713e-11], [2.5038144895050436e-11], [4.2104133220148404e-11], [-2.2103494397730747e-11], [2.3819078801702753e-12], [-3.5772757672278803e-12], [1.6458110636730883e-11], [-4.8637865140432664e-12], [-2.520237402786407e-12], [-1.867469492256482e-11]], "W2": [[-0.03137879951797471, 0.011820389093485264, 0.004050011053466639, -0.013723976692969595, -0.009354833162199696, -0.0070673543812309406, 0.015428150157049335, -0.0007355650030724034, -0.00867528790131903, -0.006605181007943225], [-0.0029382879519651225, 0.013949402438871276, 0.023403337565592243, -0.01550778221565044, 0.005365666693587261, -0.006941624630981517, 0.01396807681260702, -0.008225228417417497, -0.003200025368675627, -0.012881918333231357], [-0.002157877343203316, -0.003894384309497078, -0.018431895562260325, -0.0014886656427107697, -0.009139301087756955, -0.011358308063941579, 0.0004443901817229547, 0.0018134434784554015, 0.0002352022932186239, 0.008719376009038994], [0.004290739296592782, -0.006564683459271276, -0.013391772724971218, 0.0026119765364878244, 0.0052458983487214325, 0.0006887637475190422, 0.008755976256042875, -0.007898747437326766, -0.01051921519208045, -0.003992686550490417], [-0.01094125150551702, 0.014578693427091413, -0.009080836302881297, 0.004618100505358911, -0.005734393358898271, -0.014546182223320702, 0.0002048081551992582, -0.007361272898322466, 0.001637086278446832, -0.0030712292713777015]], "b2": [[5.743423300555289e-10], [8.930338674221427e-10], [-6.304507204718184e-10], [-5.210791267812179e-10], [9.694267914761654e-12]], "W3": [[-0.006594543070800577, -0.010253647479552779, 0.0072387714679659, 0.005982975109570541, -0.00011130865173460864]], "b3": [[-8.709337985615983e-08]]}